function [y1,xf1,xf2] = coreT_ann(x1,x2,xi1,xi2)
%MYNEURALNETWORKFUNCTION neural network simulation function.
%
% Auto-generated by MATLAB, 22-Apr-2021 11:00:31.
%
% [y1,xf1,xf2] = myNeuralNetworkFunction(x1,x2,xi1,xi2) takes these arguments:
%   x1 = 6xTS matrix, input #1
%   x2 = 1xTS matrix, input #2
%   xi1 = 6x8 matrix, initial 8 delay states for input #1.
%   xi2 = 1x8 matrix, initial 8 delay states for input #2.
% and returns:
%   y1 = 1xTS matrix, output #1
%   xf1 = 6x8 matrix, final 8 delay states for input #1.
%   xf2 = 1x8 matrix, final 8 delay states for input #2.
% where TS is the number of timesteps.

% ===== NEURAL NETWORK CONSTANTS =====

% Input 1
x1_step1.xoffset = [0;-0.0212470601417675;1;17.0749156940354;7.25444875313734;-3.34173437698175];
x1_step1.gain = [1.69692322577773e-05;0.00434151490139599;1;0.135002482678525;0.0878883550239997;0.0601210295859656];
x1_step1.ymin = -1;

% Input 2
x2_step1.xoffset = 22.2064453118426;
x2_step1.gain = 0.417641687370606;
x2_step1.ymin = -1;

% Layer 1
b1 = [1.4906970542681565739;-1.0548165274450935769;0.50223801371033982566;-0.33872938044021594362;-0.54544016292151631387;0.12490281432062499967;0.20602307466520466961;0.18975947668671352964;-0.47669170480525396849;-1.0859628023071283831];
IW1_1 = [0.09833884296551832771 -0.3119736649835167519 0.16979647316664861489 -0.06153673476057492514 0.16687103675241438117 0.36682594284106495586 0.0077003955314564193069 0.18055367458114357504 -0.11871412448353045599 0.088939622092159928424 -0.2030122446764954236 -0.23485822432937361603 0.1186827469644228944 -0.21052930034011749227 0.17509221379443395961 0.23307337836933006425 -0.044775548955683711072 -0.18994217155698170374 -0.00030602812767844839864 0.014331240936859964905 -0.14716388713497219332 -0.043421060353529501719 0.057095656638513653247 -0.11926612733059055449 -0.14285725184584452396 -0.18663259100728440965 0.081639188190709768844 -0.14128225519797818488 -0.069914324405618899494 -0.051485514141314345227 -0.05848006785626190529 -0.033875733432554747115 -0.017107196936527502978 -0.28411994331869344643 0.06441317261291858165 0.44453349171570699649 0.00026821535383943218012 0.53476859822539890565 0.23305065918548609205 0.069628733387330610238 -0.13562700676511646458 -0.087969773247381866099 -0.12779311238098975401 -0.10037717834085738144 -0.24167474538689487362 -0.022640758231904083153 0.027768339871379728312 0.087867285009058229694;0.082889647559255152931 0.18233069463197124072 -0.031230061684949420031 -0.090448818090068799913 -0.094867214402731922518 0.16100787291485010866 -0.12644199154284288533 -0.059587788601816078782 0.072551861658657748611 0.19317639604723979563 0.21876152750294491911 -0.073002654886164780601 0.28134706626382932626 -0.017343318565245603724 0.10005067937892136998 0.28633500026474434375 -0.12080942556281164257 -0.18144146792644855193 -0.080713871982292961782 -0.10828112371183837292 0.09429365576200977872 0.042619016108007432009 0.089625030189921156554 0.24535907208675955538 -0.022806647157722494124 -0.15057707981111120854 -0.17013306801813923852 -0.20968111982296744333 -0.078982655266623888468 -0.080819904702608996727 -0.04014236485369124946 0.0013762395746353406345 -0.033722962159540958993 0.2057740077696315617 -0.25033268866846120071 0.24015926165729412078 -0.053237227563427323707 0.3931898559113067293 -0.14195003147284995793 -0.15919384725304192019 -0.20226567921157517782 -0.19062226645966406924 -0.14441971692811073069 -0.31926570611863802629 -0.0034673073406333741395 -0.30854101035206765724 0.35102310655477403367 0.032204333596081866076;-0.20395084626369031078 0.28771270347118776955 0.27852227263732759477 -0.25197273740156511668 -0.23974163937998513307 -0.14424318061395305368 -0.25983760741433276076 0.3144832620088292563 0.006550724001055555773 -0.11909789608526663574 0.14982909209872585787 0.069560658368118075123 0.29948121546599126841 0.13045886555699146014 0.2402170451539601681 -0.0737508135823998906 0.010210292531456168288 0.29176497982888499605 -0.072180023282374952687 -0.20960223575842884536 0.097785911074202022664 -0.22048600722936156915 -0.36550695981426800651 -0.027173018902993912455 0.45994726947190522903 -0.15836411368917910347 0.16080575062272331466 0.38090608391002778177 -0.18534153835646319242 -0.0019229313205794105763 -0.2426907088146044722 -0.11700025976928447868 -0.33475617078430269791 0.028329039470877327017 -0.11547209021912208105 -0.048248434081750848912 -0.5561569183211878542 -0.26601090934021137668 -0.20325784125897158883 0.068141670301941903443 0.33436257889451048708 -0.10553907418479274716 0.26712825585288479946 0.0036580480790478170187 0.19672802539721589987 0.033251648181619603006 0.12251477033978429299 0.32745295483877218112;-0.097219200436811981092 0.2310093254043759925 0.12096904346410325415 -0.042401448558604303007 0.10363882454444761638 -0.24033164124852063326 0.021703185520732127395 0.044129850195298012117 -0.18025358850070732908 0.18362274729572025667 -0.27352839760292863014 0.43871016272472224129 0.12866341928677693662 -0.37541877817205582257 0.35393330563773583997 0.11566324057578568352 -0.19027001995236858534 -0.16068489157402396361 -0.016451806750041986227 0.0089595308340471684072 -0.018143555054828827688 -0.16230425382869004269 0.16929399385143570345 -0.28918826285062532166 -0.23620420205722608697 -0.25789385203281683934 -0.030644386876878100534 -0.15365422834082148595 0.099286301991193856575 -0.11533484223315983164 0.050979673553614046622 0.21194241109879580209 0.04365113837013048087 -0.041220652654951922544 -0.035327474149290855054 0.11650969618015849516 0.28740316499476253886 -0.0027630932861576577853 0.13013433671513024992 0.063075613956660253612 -0.33276088628688987869 0.049942092866061257861 -0.13317759969527864783 0.15241957219498850074 0.17444420496240092833 -0.070053581075768353581 0.14415259436091762413 -0.11627524877474429421;0.030089092803786784969 -0.38440370904741316682 0.060697636455399862909 -0.25317595539905657365 -0.011138100963514278516 -0.062613727000011346058 0.1961355632367423607 0.038953133690659773325 -0.15453844393115126477 -0.053364503266817825411 -0.052739568085776344919 0.122301428430120665 -0.10710898490100673186 0.078182204384252357299 0.29170763771556901256 -0.43161494919073151166 0.14218083291706296034 -0.061804892098746386231 0.0569420929446661922 -0.019714714098113435281 -0.032964068570361396149 0.2055793557351311418 -0.010073227521237338583 0.092796134540655328404 0.0071523362631583341231 0.13754297366981949047 0.015092784042308338838 -0.30847690321672555092 -0.11870164047404320462 -0.070344799556183640332 -0.16175353116205468118 -0.045587591742592227517 0.09354297957175768119 0.30185377865467127867 0.16257006488887060236 -0.049761012420474086404 0.069827518190477486093 -0.20641124878659461439 -0.18099247890055394916 0.28849154665473891734 -0.033911773364654049234 -0.0033804943033530453211 -0.12539253142043116362 0.32176544079096153217 -0.016928982457810725498 0.16864727979835233973 -0.053039373052489804938 0.057167088384103302567;0.28787857102583175317 -0.20738935885745057863 -0.25655972179026081958 -0.170466914328218061 -0.14380793971088623451 0.0051752686861509175631 0.35188387490089367837 -0.30210267874656016041 0.22453809551084891183 -0.21112667421995318096 -0.11590593127324129441 0.31908124630402751043 -0.017613788146784034594 -0.43781041982249391253 0.15157719504367128671 -0.065191845432092776491 0.019625103175761701713 -0.039316815219169923279 -0.15336791306049202266 -0.19599389125168459325 -0.14876191058672097456 0.20255503282661593834 -0.22369104108152587651 -0.14546594398566528583 -0.17198995585635459826 0.26502099864744060875 -0.32943278886433652319 0.17192233048159791253 0.19104766247604249019 0.26282528110562441981 0.21736083511438386573 0.13611435869322555114 -0.054427140156840629615 -0.10406556246896511708 -0.084690589132030286157 0.3000355015023077887 0.18828006994977164457 -0.078630095804364877332 -0.13826086924803362987 -0.1716472725807867139 0.16675553105341162086 0.0022047516085796688839 0.15244347219383105885 0.10659435679455712964 -0.17841000379559987521 0.36162503630223380435 -0.18655571348727495451 -0.093459879904020368158;0.060767057378790234612 -0.46998473495911052833 -0.13214786841738979106 -0.41938145070997406849 0.036529268548534991889 0.025781379131575819785 0.080525040400870342983 -0.01041261363018764971 0.18270319356147649015 -0.19319095168446720479 -0.033529193047961106111 -0.11878749316961084714 -0.077981087257319198214 0.22929861827512426631 0.1557053448668730411 -0.25026777225524898807 0.20226056183739057892 0.13294781681250794625 0.12651571124384775047 -0.016439491228746355711 -0.066931937383439596423 0.16945957420583612762 -0.13659541899796498465 0.099720064696236010438 0.55266010590028780136 -0.31025066797634170968 0.085583777267654467802 0.058204632792177302125 -0.085422673665895565431 0.12171764324047373851 -0.48482153702447872146 0.20958231620240241888 -0.065018982048702281262 0.013902158754767211801 0.42658300877902166626 -0.26213781926416823698 -0.64350487016133461893 0.38214303469970367644 -0.18857190788264974191 0.28182843611666130723 0.2020234695888536991 0.024661864113593345155 0.43075943269816152625 -0.092663235568563484534 0.010314145688240008644 0.2854426497423837028 -0.45949088373946317398 0.11319512498330083772;0.061773682350521191831 0.053323756108745741511 0.0069070463791533146664 -0.054958460798664794666 -0.16561595998592426593 0.03725392605171434085 0.090151175982005019027 0.072362155550204004806 0.087786558363642006042 0.27716476230283554338 0.145908173289786669 -0.040942439085510526353 0.15710265049740448906 -0.094632785629121113358 0.10398573528071607119 -0.08289883426954404444 -0.10935358886501099496 -0.20253552009083763963 0.096820378776749593808 -0.067594854330353240646 -0.0081298709689301661141 0.25639712387851121278 0.19985577553863423383 0.35638321929753452588 0.28287743402371851031 -0.097852765108359135438 -0.20039349810399686991 -0.050171498741070706673 0.19037063317570634968 0.1087863784921399013 -0.42605768512314856622 0.081218355757934498906 0.00072472796382287360539 0.095482628108715175697 -0.27005661320393997693 -0.39614646572985146022 -0.24316089923324959998 0.024410544632549761868 -0.11044188941385545133 -0.23885893677117747691 -0.17164694983291714503 0.024348251363726099161 -0.088396080061358975333 0.026798057323167982086 0.18913091818713451131 -0.2062870439867502681 -0.091514901844230153727 -0.071768582253780022207;-0.022261597150477027696 -0.012033305028319798979 -0.27983642162185085045 -0.16677351632423173533 0.1340664532015098942 -0.039842250668491160925 -0.18395454288202262028 -0.1977260722890747946 0.26444431929983058804 0.20296309968154011005 -0.016172819159163839831 0.0032207521048863655549 -0.029001937897065961647 0.10543392380208849168 -0.16306838283846028514 -0.0156584079659555786 0.029510265599626456928 0.13639404775402144687 -0.028580380493671835029 0.037554614756393121799 0.04797551961370471324 0.021466143089857222387 -0.068156752104800683023 -0.27212486942415919922 0.21334443595892632617 -0.36095922231545796155 0.12470915549256078592 0.035507311368978493327 -0.0051873575150517235721 -0.068704962982279002559 0.016597789228620221658 0.28383349471820945586 -0.10574436644615127501 -0.13036765098752803316 0.31767662295550602725 0.24564966648580585651 -0.34993869918048947643 0.58032763071883697314 0.17815686558268001294 0.16618047681037048657 0.074739532512742345993 0.036372593073205936043 0.54808755255994701105 -0.37980678156310471172 -0.055238869980806917792 -0.061357148032874335442 -0.15305354862260314719 -0.090619478062467409551;0.079884941642781162607 0.058278887548309690758 -0.25633319475309207514 -0.32198848048897593666 0.098154574059889018733 0.075165678468656224598 0.12962663601426530069 -0.10374434332205297038 0.1298248842623311583 0.0081069427876637976949 0.023670403482145389168 -0.162713225807069789 -0.19844448792022542638 0.14601342323361191089 -0.10669937541677931847 -0.13517438332865147621 0.12861915131291729031 0.22012798357229068635 -0.031364227999700178273 0.1939469572158164512 0.080366987313071416854 0.1895477120955884609 -0.2005064676269098789 0.18017541549843602011 -0.1820157213881168079 -0.014330775008854879093 -0.18630569660927628894 0.18177535386667359463 0.11789186649100526216 0.1124881103748820721 0.27281423084128830769 -0.079488188067222076416 0.09974230795271017691 -0.29940091262867635225 -0.03096778781796738142 -0.08364390303428165252 0.28087952089842360692 -0.21039805945850448277 -0.12273272271366553188 0.20070151361635657494 -0.26449483693628622616 -0.12175486292942959421 -0.23977384369422988231 -0.1035612388321255628 -0.16309612367388556797 0.19085573724342422275 0.34284096233859312486 0.1193903714213364331];
IW1_2 = [0.26351774189325111175 -0.55398248292958096606 -0.36098485060571416927 -0.14654159673428812649 0.28968363217088555217 0.37894854501094676902 0.58352740436172723104 0.091562801519064887512;-0.68113004856333225767 0.057999444683634049369 -0.20706010273931740873 -0.022988022758872985601 0.37338869679412445279 -0.23884512058311963001 -0.24506629888878969648 0.29341489032266199199;0.44707376450168595516 -0.28832078724639681466 0.28598347703049353807 0.097139887128883745104 0.21072802871043219697 -0.011707652621051297878 0.10572144415668921491 -0.28366119731679623195;-0.64396060842480906672 0.52530190912632224176 0.35910447659787086971 0.058547517314528278731 0.23548527780997249859 -0.021511256948859795723 0.048258566877856491628 0.015856428412838567688;0.13409386731276376481 -0.093677243657447686886 0.034916003251311333866 0.043246452970586247988 0.19588184409414952092 -0.2852335595456662598 -0.14432507428649657411 0.68365967102265068345;0.30778792776678493004 -0.25570092214177714274 0.053252096891367041442 -0.21643118101376168649 0.18066680049932234975 0.015464222480233096035 0.37636879364851871799 -0.16983449053736113243;-0.85609597970563344749 0.23041484507303494622 -0.36788599527941900913 -0.13816855385645102072 0.06534542621219754932 0.21123013156346068242 0.088951473666769739768 0.25495810092485710063;0.86207185268589281435 -0.72909360439223802608 0.17656257225267030231 -0.25149561201687220535 -0.015031478932729023384 0.16201637734065765795 0.49386181368034653971 -0.21348799804825396853;1.1151769637511426136 -0.61579868084668276662 -0.062589229533815543549 0.087127593422323582062 -0.062846524588548502432 -0.019254449405340712254 -0.36197801945622132269 -0.0094972998113512577256;-0.066073503532067395794 0.09741857542567781969 -0.13407285174348046453 0.016710609181604836604 -0.09772835753973505013 -0.43804546796864779479 0.1668842235997847756 -0.28245702096516073221];

% Layer 2
b2 = -0.42761582507577405865;
LW2_1 = [0.7739446016228699321 -0.57587476688544281256 0.19753179104309215308 -0.27965395799566783452 0.7246153588622349373 0.036911121909152168341 -0.60014465564587904378 0.49616192083713039906 0.67550123600467704144 0.27216358389303973997];

% Output 1
y1_step1.ymin = -1;
y1_step1.gain = 0.417641687370606;
y1_step1.xoffset = 22.2064453118426;

% ===== SIMULATION ========

% Dimensions
TS = size(x1,2); % timesteps

% Input 1 Delay States
xd1 = mapminmax_apply(xi1,x1_step1);
xd1 = [xd1 zeros(6,1)];

% Input 2 Delay States
xd2 = mapminmax_apply(xi2,x2_step1);
xd2 = [xd2 zeros(1,1)];

% Allocate Outputs
y1 = zeros(1,TS);

% Time loop
for ts=1:TS
    
    % Rotating delay state position
    xdts = mod(ts+7,9)+1;
    
    % Input 1
    xd1(:,xdts) = mapminmax_apply(x1(:,ts),x1_step1);
    
    % Input 2
    xd2(:,xdts) = mapminmax_apply(x2(:,ts),x2_step1);
    
    % Layer 1
    tapdelay1 = reshape(xd1(:,mod(xdts-[1 2 3 4 5 6 7 8]-1,9)+1),48,1);
    tapdelay2 = reshape(xd2(:,mod(xdts-[1 2 3 4 5 6 7 8]-1,9)+1),8,1);
    a1 = tansig_apply(b1 + IW1_1*tapdelay1 + IW1_2*tapdelay2);
    
    % Layer 2
    a2 = b2 + LW2_1*a1;
    
    % Output 1
    y1(:,ts) = mapminmax_reverse(a2,y1_step1);
end

% Final delay states
finalxts = TS+(1: 8);
xits = finalxts(finalxts<=8);
xts = finalxts(finalxts>8)-8;
xf1 = [xi1(:,xits) x1(:,xts)];
xf2 = [xi2(:,xits) x2(:,xts)];
end

% ===== MODULE FUNCTIONS ========

% Map Minimum and Maximum Input Processing Function
function y = mapminmax_apply(x,settings)
y = bsxfun(@minus,x,settings.xoffset);
y = bsxfun(@times,y,settings.gain);
y = bsxfun(@plus,y,settings.ymin);
end

% Sigmoid Symmetric Transfer Function
function a = tansig_apply(n,~)
a = 2 ./ (1 + exp(-2*n)) - 1;
end

% Map Minimum and Maximum Output Reverse-Processing Function
function x = mapminmax_reverse(y,settings)
x = bsxfun(@minus,y,settings.ymin);
x = bsxfun(@rdivide,x,settings.gain);
x = bsxfun(@plus,x,settings.xoffset);
end
